FANN_FLO_2.1
num_layers=4
learning_rate=0.001000
connection_rate=1.000000
network_type=0
learning_momentum=0.000000
training_algorithm=2
train_error_function=1
train_stop_function=0
cascade_output_change_fraction=0.010000
quickprop_decay=-0.000100
quickprop_mu=1.750000
rprop_increase_factor=1.200000
rprop_decrease_factor=0.500000
rprop_delta_min=0.000000
rprop_delta_max=50.000000
rprop_delta_zero=0.100000
cascade_output_stagnation_epochs=12
cascade_candidate_change_fraction=0.010000
cascade_candidate_stagnation_epochs=12
cascade_max_out_epochs=150
cascade_min_out_epochs=50
cascade_max_cand_epochs=150
cascade_min_cand_epochs=50
cascade_num_candidate_groups=2
bit_fail_limit=3.49999994039535522461e-01
cascade_candidate_limit=1.00000000000000000000e+03
cascade_weight_multiplier=4.00000005960464477539e-01
cascade_activation_functions_count=10
cascade_activation_functions=3 5 7 8 10 11 14 15 16 17 
cascade_activation_steepnesses_count=4
cascade_activation_steepnesses=2.50000000000000000000e-01 5.00000000000000000000e-01 7.50000000000000000000e-01 1.00000000000000000000e+00 
layer_sizes=7 9 9 2 
scale_included=0
neurons (num_inputs, activation_function, activation_steepness)=(0, 0, 0.00000000000000000000e+00) (0, 0, 0.00000000000000000000e+00) (0, 0, 0.00000000000000000000e+00) (0, 0, 0.00000000000000000000e+00) (0, 0, 0.00000000000000000000e+00) (0, 0, 0.00000000000000000000e+00) (0, 0, 0.00000000000000000000e+00) (7, 3, 5.00000000000000000000e-01) (7, 3, 5.00000000000000000000e-01) (7, 3, 5.00000000000000000000e-01) (7, 3, 5.00000000000000000000e-01) (7, 3, 5.00000000000000000000e-01) (7, 3, 5.00000000000000000000e-01) (7, 3, 5.00000000000000000000e-01) (7, 3, 5.00000000000000000000e-01) (0, 3, 0.00000000000000000000e+00) (9, 3, 5.00000000000000000000e-01) (9, 3, 5.00000000000000000000e-01) (9, 3, 5.00000000000000000000e-01) (9, 3, 5.00000000000000000000e-01) (9, 3, 5.00000000000000000000e-01) (9, 3, 5.00000000000000000000e-01) (9, 3, 5.00000000000000000000e-01) (9, 3, 5.00000000000000000000e-01) (0, 3, 0.00000000000000000000e+00) (9, 3, 5.00000000000000000000e-01) (0, 3, 0.00000000000000000000e+00) 
connections (connected_to_neuron, weight)=(0, -1.50000000000000000000e+03) (1, -1.50000000000000000000e+03) (2, 9.19426452636718750000e+02) (3, -1.50000000000000000000e+03) (4, -1.50000000000000000000e+03) (5, 1.50000000000000000000e+03) (6, 1.13071301269531250000e+03) (0, -1.50000000000000000000e+03) (1, -1.50000000000000000000e+03) (2, -1.17681713867187500000e+03) (3, -1.50000000000000000000e+03) (4, -1.50000000000000000000e+03) (5, 1.50000000000000000000e+03) (6, 7.93804077148437500000e+02) (0, -1.50000000000000000000e+03) (1, -1.50000000000000000000e+03) (2, -1.50000000000000000000e+03) (3, -1.50000000000000000000e+03) (4, -1.50000000000000000000e+03) (5, 1.50000000000000000000e+03) (6, 6.67927429199218750000e+02) (0, -1.50000000000000000000e+03) (1, -1.50000000000000000000e+03) (2, -1.50000000000000000000e+03) (3, -1.50000000000000000000e+03) (4, -1.50000000000000000000e+03) (5, 1.50000000000000000000e+03) (6, 2.83217678070068359375e+01) (0, -1.50000000000000000000e+03) (1, -1.50000000000000000000e+03) (2, -1.50000000000000000000e+03) (3, -1.50000000000000000000e+03) (4, -1.50000000000000000000e+03) (5, 1.50000000000000000000e+03) (6, -2.51839294433593750000e+02) (0, -1.50000000000000000000e+03) (1, -1.50000000000000000000e+03) (2, -7.27173461914062500000e+02) (3, -1.50000000000000000000e+03) (4, -1.50000000000000000000e+03) (5, 1.50000000000000000000e+03) (6, 1.25115393066406250000e+03) (0, 1.50000000000000000000e+03) (1, 1.50000000000000000000e+03) (2, 1.50000000000000000000e+03) (3, 1.50000000000000000000e+03) (4, 1.50000000000000000000e+03) (5, -1.50000000000000000000e+03) (6, 1.14799853515625000000e+03) (0, -1.50000000000000000000e+03) (1, -1.50000000000000000000e+03) (2, -1.50000000000000000000e+03) (3, -1.50000000000000000000e+03) (4, -1.50000000000000000000e+03) (5, 1.50000000000000000000e+03) (6, 4.37537078857421875000e+02) (7, -1.35970260620117187500e+02) (8, 1.32492285156250000000e+03) (9, -1.49914465332031250000e+03) (10, 1.33089880371093750000e+03) (11, -1.50000000000000000000e+03) (12, -3.78892272949218750000e+02) (13, 5.24495971679687500000e+02) (14, 2.36800231933593750000e+02) (15, 1.20950538635253906250e+02) (7, -1.48841284179687500000e+03) (8, 1.07190649414062500000e+03) (9, -1.47825341796875000000e+03) (10, -9.95532226562500000000e+02) (11, -1.50000000000000000000e+03) (12, -1.35089550781250000000e+03) (13, 6.98839294433593750000e+02) (14, -1.23949658203125000000e+03) (15, 5.84040298461914062500e+01) (7, 1.31911450195312500000e+03) (8, 1.07190649414062500000e+03) (9, -1.28056433105468750000e+03) (10, 1.32943957519531250000e+03) (11, -1.50000000000000000000e+03) (12, -4.03176452636718750000e+02) (13, 1.11334631347656250000e+03) (14, 2.18740661621093750000e+02) (15, 9.53759574890136718750e+00) (7, 1.49914123535156250000e+03) (8, 1.37924499511718750000e+02) (9, 1.49981457519531250000e+03) (10, 1.33176049804687500000e+03) (11, 1.50000000000000000000e+03) (12, -6.00113403320312500000e+02) (13, 1.08230944824218750000e+03) (14, 1.50000000000000000000e+03) (15, 6.06245326995849609375e+00) (7, 1.49793896484375000000e+03) (8, 7.98319152832031250000e+02) (9, 1.49981457519531250000e+03) (10, -7.51776489257812500000e+02) (11, 1.50000000000000000000e+03) (12, -7.95248107910156250000e+02) (13, 2.40060379028320312500e+02) (14, 1.50000000000000000000e+03) (15, -1.10445842742919921875e+01) (7, -3.72682281494140625000e+02) (8, -2.85364227294921875000e+02) (9, 4.08931427001953125000e+02) (10, -1.98068201541900634766e+00) (11, -1.50000000000000000000e+03) (12, -1.16675793457031250000e+03) (13, 1.50000000000000000000e+03) (14, -1.24651153564453125000e+02) (15, 4.66120719909667968750e+01) (7, 1.47785656738281250000e+03) (8, 1.07190649414062500000e+03) (9, -1.25922680664062500000e+03) (10, 1.32954064941406250000e+03) (11, -1.50000000000000000000e+03) (12, -4.03730041503906250000e+02) (13, 1.02014318847656250000e+03) (14, 2.18738586425781250000e+02) (15, -7.42708981037139892578e-01) (7, 1.49793896484375000000e+03) (8, 3.22142486572265625000e+02) (9, 1.49981457519531250000e+03) (10, 1.33176049804687500000e+03) (11, 1.50000000000000000000e+03) (12, -6.00113403320312500000e+02) (13, 1.21551696777343750000e+03) (14, 1.50000000000000000000e+03) (15, 5.17265081405639648438e+00) (16, 6.26768708229064941406e-01) (17, 2.58427739143371582031e-01) (18, 6.13083481788635253906e-01) (19, -2.23344253540039062500e+02) (20, -2.10210815072059631348e-01) (21, 2.19603744506835937500e+02) (22, 5.30124723911285400391e-01) (23, -4.17818099260330200195e-01) (24, -3.46439868211746215820e-01) 
